digraph Tree {
node [shape=box, style="filled, rounded", color="black", fontname="helvetica"] ;
edge [fontname="helvetica"] ;
0 [label="petal length (cm) <= 2.35\ngini = 0.66\nsamples = 88\nvalue = [45, 53, 52]\nclass = versicolor", fillcolor="#fdfffe"] ;
1 [label="gini = 0.0\nsamples = 29\nvalue = [45, 0, 0]\nclass = setosa", fillcolor="#e58139"] ;
0 -> 1 [labeldistance=2.5, labelangle=45, headlabel="True"] ;
2 [label="petal length (cm) <= 4.95\ngini = 0.5\nsamples = 59\nvalue = [0, 53, 52]\nclass = versicolor", fillcolor="#fbfffd"] ;
0 -> 2 [labeldistance=2.5, labelangle=-45, headlabel="False"] ;
3 [label="petal width (cm) <= 1.65\ngini = 0.17\nsamples = 30\nvalue = [0, 50, 5]\nclass = versicolor", fillcolor="#4de88e"] ;
2 -> 3 ;
4 [label="gini = 0.0\nsamples = 27\nvalue = [0, 50, 0]\nclass = versicolor", fillcolor="#39e581"] ;
3 -> 4 ;
5 [label="gini = 0.0\nsamples = 3\nvalue = [0, 0, 5]\nclass = virginica", fillcolor="#8139e5"] ;
3 -> 5 ;
6 [label="petal width (cm) <= 1.75\ngini = 0.11\nsamples = 29\nvalue = [0, 3, 47]\nclass = virginica", fillcolor="#8946e7"] ;
2 -> 6 ;
7 [label="petal width (cm) <= 1.65\ngini = 0.47\nsamples = 5\nvalue = [0, 3, 5]\nclass = virginica", fillcolor="#cdb0f5"] ;
6 -> 7 ;
8 [label="gini = 0.0\nsamples = 4\nvalue = [0, 0, 5]\nclass = virginica", fillcolor="#8139e5"] ;
7 -> 8 ;
9 [label="gini = 0.0\nsamples = 1\nvalue = [0, 3, 0]\nclass = versicolor", fillcolor="#39e581"] ;
7 -> 9 ;
10 [label="gini = 0.0\nsamples = 24\nvalue = [0, 0, 42]\nclass = virginica", fillcolor="#8139e5"] ;
6 -> 10 ;
}